svm_type c_svc
kernel_type linear
nr_class 2
total_sv 4
rho -1.56822
label 1 -1
nr_sv 2 2
SV
0.008387356605976854 1:0.09044 2:0.096277 3:0.123007 4:0.111536 5:0.098597 6:0.065113 7:0.09527 8:0.125258 9:0.10717 10:0.092346 11:0.062066 12:0.091955 13:0.10258 14:0.070982 15:0.063874 16:0.069496 17:0.07201 18:0.055081 19:0.039727 20:0.038315 21:0.067502 22:0.068665 23:0.057197 24:0.042758 25:0.039592 
1 1:0.102986 2:0.11175 3:0.132858 4:0.116763 5:0.104902 6:0.065858 7:0.099697 8:0.137161 9:0.120653 10:0.102919 11:0.056211 12:0.076796 13:0.093482 14:0.070227 15:0.063368 16:0.061453 17:0.053353 18:0.042025 19:0.033252 20:0.03349 21:0.062656 22:0.059741 23:0.049362 24:0.037774 25:0.03581 
-0.2917489038256108 1:0.300414 2:0.360729 3:0.482346 4:0.503043 5:0.522999 6:0.194085 7:0.305494 8:0.493085 9:0.544817 10:0.566209 11:0.222693 12:0.319342 13:0.449378 14:0.428086 15:0.468253 16:0.335468 17:0.330398 18:0.314752 19:0.306135 20:0.355323 21:0.373585 22:0.350359 23:0.333486 24:0.320746 25:0.367722 
-0.7166384527803662 1:0.635446 2:0.691002 3:0.68173 4:0.429328 5:0.323255 6:0.296997 7:0.499665 8:0.648315 9:0.420957 10:0.289037 11:0.24707 12:0.366875 13:0.403975 14:0.210481 15:0.146412 16:0.220516 17:0.208479 18:0.147739 19:0.073075 20:0.05308 21:0.224787 22:0.248113 23:0.183769 24:0.092511 25:0.061873 
