svm_type c_svc
kernel_type linear
nr_class 2
total_sv 22
rho 1.24025
label 1 -1
nr_sv 11 11
SV
1 1:0.456199 2:0.509741 3:0.611292 4:0.575101 5:0.582843 6:0.305363 7:0.427014 8:0.624989 9:0.637897 10:0.66159 11:0.332894 12:0.419067 13:0.551193 14:0.511543 15:0.563491 16:0.478648 17:0.421831 18:0.382427 19:0.367274 20:0.432933 21:0.529103 22:0.473843 23:0.42925 24:0.399687 25:0.460348 
1 1:0.467908 2:0.475197 3:0.568985 4:0.571049 5:0.606173 6:0.382771 7:0.513863 8:0.737845 9:0.73496 10:0.752355 11:0.440268 12:0.564349 13:0.725953 14:0.64789 15:0.692628 16:0.632421 17:0.589502 18:0.525284 19:0.491343 20:0.561582 21:0.682688 22:0.607081 23:0.539855 24:0.508879 25:0.589965 
1 1:0.461339 2:0.501729 3:0.620636 4:0.617854 5:0.631653 6:0.333043 7:0.477786 8:0.709738 9:0.718318 10:0.718345 11:0.379403 12:0.503546 13:0.646062 14:0.570615 15:0.598089 16:0.54605 17:0.520534 18:0.458572 19:0.410366 20:0.454256 21:0.5911 22:0.549818 23:0.49098 24:0.441521 25:0.484203 
1 1:0.34355 2:0.392605 3:0.495193 4:0.492483 5:0.500358 6:0.228368 7:0.334488 8:0.515867 9:0.534845 10:0.537025 11:0.260869 12:0.34739 13:0.458182 14:0.404713 15:0.423478 16:0.379713 17:0.353042 18:0.310889 19:0.275183 20:0.304904 21:0.409065 22:0.376823 23:0.3372 24:0.299119 25:0.32822 
1 1:0.322604 2:0.333215 3:0.412648 4:0.424871 5:0.459913 6:0.249697 7:0.328509 8:0.491059 9:0.510491 10:0.535697 11:0.290199 12:0.363088 13:0.48187 14:0.42484 15:0.454717 16:0.422282 17:0.380866 18:0.345539 19:0.306195 20:0.344384 21:0.4559 22:0.393999 23:0.352157 24:0.314138 25:0.355407 
1 1:0.45461 2:0.457921 3:0.552433 4:0.550416 5:0.571807 6:0.39118 7:0.51033 8:0.739603 9:0.739436 10:0.744254 11:0.473089 12:0.591231 13:0.752709 14:0.65936 15:0.693266 16:0.690168 17:0.628989 18:0.552234 19:0.500583 20:0.5633 21:0.735403 22:0.632558 23:0.553907 24:0.508347 25:0.579715 
1 1:0.485361 2:0.477605 3:0.557762 4:0.538014 5:0.566268 6:0.409384 7:0.540157 8:0.735192 9:0.706934 10:0.72631 11:0.471008 12:0.602187 13:0.740389 14:0.63115 15:0.664067 16:0.685672 17:0.628787 18:0.541887 19:0.478658 20:0.528915 21:0.742107 22:0.636082 23:0.543298 24:0.487552 25:0.552193 
1 1:0.300414 2:0.356996 3:0.467687 4:0.482995 5:0.505345 6:0.193215 7:0.301484 8:0.483907 9:0.529994 10:0.553479 11:0.222532 12:0.316336 13:0.444608 14:0.423185 15:0.463196 16:0.334854 17:0.329535 18:0.313826 19:0.304236 20:0.352907 21:0.372603 22:0.348283 23:0.329855 24:0.316675 25:0.363862 
0.7231935412578009 1:0.459775 2:0.510031 3:0.643823 4:0.64367 5:0.656767 6:0.353204 7:0.501741 8:0.742383 9:0.749134 10:0.764219 11:0.414057 12:0.527499 13:0.685197 14:0.62061 15:0.676671 16:0.62506 17:0.556437 18:0.496205 19:0.471576 20:0.550196 21:0.692789 22:0.601553 23:0.542396 24:0.515314 25:0.598327 
0.6383406454319975 1:0.406835 2:0.462691 3:0.587351 4:0.595803 5:0.61972 6:0.280585 7:0.411388 8:0.639185 9:0.677536 10:0.697031 11:0.336618 12:0.440506 13:0.594874 14:0.557204 15:0.603226 16:0.520743 17:0.477474 18:0.432538 19:0.407113 20:0.462373 21:0.577422 22:0.510283 23:0.460291 24:0.423047 25:0.47332 
1 1:0.354232 2:0.418504 3:0.527505 4:0.515668 5:0.508383 6:0.2003 7:0.344144 8:0.549434 9:0.566386 10:0.555133 11:0.211135 12:0.32773 13:0.466952 14:0.433051 15:0.447081 16:0.303645 17:0.321479 18:0.308821 19:0.292367 20:0.324437 21:0.33784 22:0.350199 23:0.331562 24:0.305419 25:0.33369 
-1 1:0.089944 2:0.125801 3:0.248882 4:0.358996 5:0.393108 6:0.203802 7:0.329121 8:0.594771 9:0.728166 10:0.729152 11:0.372879 12:0.588652 13:0.883817 14:0.881026 15:0.869758 16:0.75688 17:0.862228 18:0.874367 19:0.866415 20:0.862784 21:0.8542 22:0.863403 23:0.861762 24:0.862002 25:0.865009 
-1 1:0.078267 2:0.110369 3:0.224107 4:0.33391 5:0.377566 6:0.179607 7:0.281885 8:0.526402 9:0.678042 10:0.701676 11:0.334914 12:0.52223 13:0.801489 14:0.827243 15:0.837786 16:0.699295 17:0.800754 18:0.829624 19:0.82483 20:0.829166 21:0.798044 22:0.818752 23:0.835984 24:0.832036 25:0.835144 
-1 1:0.08261 2:0.111572 3:0.22624 4:0.332825 5:0.367132 6:0.188268 7:0.285138 8:0.522582 9:0.664987 10:0.680261 11:0.349483 12:0.527657 13:0.800336 14:0.8173 15:0.821995 16:0.715434 17:0.803154 18:0.830509 19:0.825098 20:0.826875 21:0.79737 22:0.81607 23:0.83146 24:0.821453 25:0.82164 
-1 1:0.087455 2:0.118818 3:0.238971 4:0.346352 5:0.385778 6:0.199726 7:0.312658 8:0.585003 9:0.730162 10:0.740774 11:0.370438 12:0.57465 13:0.884894 14:0.891609 15:0.886879 16:0.758052 17:0.857937 18:0.889635 19:0.882328 20:0.880851 21:0.857839 22:0.857139 23:0.871438 24:0.869029 25:0.874667 
-0.7390110014478267 1:0.080116 2:0.110247 3:0.228499 4:0.35358 5:0.400685 6:0.191032 7:0.312161 8:0.57851 9:0.739991 10:0.763822 11:0.365995 12:0.5927 13:0.909522 14:0.936478 15:0.942216 16:0.789495 17:0.924477 18:0.956807 19:0.967426 20:0.967222 21:0.901383 22:0.93432 23:0.947308 24:0.958618 25:0.960563 
-1 1:0.757694 2:0.781805 3:0.746559 4:0.44407 5:0.32857 6:0.424512 7:0.58111 8:0.651199 9:0.391207 10:0.287311 11:0.394701 12:0.492668 13:0.455705 14:0.220884 15:0.169825 16:0.39476 17:0.333276 18:0.202433 19:0.09241 20:0.073564 21:0.369274 22:0.34245 23:0.225708 24:0.104981 25:0.073448 
-1 1:0.800512 2:0.818419 3:0.770553 4:0.456087 5:0.339521 6:0.403288 7:0.587249 8:0.672044 9:0.389151 10:0.278626 11:0.33495 12:0.448579 13:0.44867 14:0.215455 15:0.157904 16:0.31166 17:0.272388 18:0.177475 19:0.083707 20:0.064922 21:0.312063 22:0.309986 23:0.211182 24:0.09958 25:0.069315 
-1 1:0.72451 2:0.804152 3:0.802129 4:0.500618 5:0.367678 6:0.293542 7:0.544148 8:0.695336 9:0.44962 10:0.308632 11:0.204328 12:0.349399 13:0.395886 14:0.213929 15:0.145188 16:0.174132 17:0.188713 18:0.142998 19:0.073551 20:0.050295 21:0.201252 22:0.254438 23:0.197684 24:0.100996 25:0.064734 
-1 1:0.635446 2:0.687269 3:0.667071 4:0.40928 5:0.3056 6:0.296127 7:0.495655 8:0.639138 9:0.406134 10:0.276306 11:0.24691 12:0.363869 13:0.399205 14:0.20558 15:0.141354 16:0.219902 17:0.207616 18:0.146813 19:0.071176 20:0.050665 21:0.223805 22:0.246037 23:0.180138 24:0.08844 25:0.058013 
-1 1:0.835343 2:0.800843 3:0.751415 4:0.434961 5:0.321939 6:0.53896 7:0.699564 8:0.759188 9:0.423517 10:0.315874 11:0.472586 12:0.55101 13:0.511054 14:0.243205 15:0.194195 16:0.437639 17:0.338869 18:0.205301 19:0.095688 20:0.0818 21:0.404245 22:0.351327 23:0.229098 24:0.105807 25:0.077671 
-0.6225231852419715 1:0.894269 2:0.837795 3:0.743451 4:0.405224 5:0.302549 6:0.547382 7:0.731128 8:0.772344 9:0.429381 10:0.316217 11:0.438507 12:0.548254 13:0.517827 14:0.258884 15:0.196725 16:0.387785 17:0.320875 18:0.201847 19:0.102175 20:0.081858 21:0.378456 22:0.343342 23:0.222395 24:0.103844 25:0.074984 
