svm_type c_svc
kernel_type linear
nr_class 2
total_sv 7
rho 1.02004
label 1 -1
nr_sv 3 4
SV
1 1:0.111086 2:0.147265 3:0.279605 4:0.401164 5:0.444248 6:0.20171 7:0.318263 8:0.586213 9:0.738732 10:0.754464 11:0.337002 12:0.521591 13:0.784261 14:0.785404 15:0.78834 16:0.632638 17:0.6985 18:0.702331 19:0.686525 20:0.691471 21:0.640419 22:0.626585 23:0.623561 24:0.616724 25:0.629189 
1 1:0.118705 2:0.154729 3:0.280326 4:0.385725 5:0.419479 6:0.223539 7:0.346163 8:0.60861 9:0.719513 10:0.714023 11:0.37141 12:0.552089 13:0.813451 14:0.798059 15:0.793081 16:0.670301 17:0.718419 18:0.737395 19:0.732693 20:0.735812 21:0.674958 22:0.652488 23:0.671399 24:0.67484 25:0.684519 
0.421110568421472 1:0.109901 2:0.14074 3:0.253951 4:0.348041 5:0.38034 6:0.222772 7:0.343446 8:0.593989 9:0.689765 10:0.67941 11:0.394095 12:0.587729 13:0.836158 14:0.784962 15:0.770597 16:0.780578 17:0.836616 18:0.809971 19:0.758686 20:0.751268 21:0.833972 22:0.815443 23:0.792458 24:0.757016 25:0.756558 
-0.05295417905051057 1:0.014315 2:0.006124 3:0 4:0 5:0.003888 6:0.019543 7:0.022647 8:0.021965 9:0.016155 10:0.016831 11:0.020291 12:0.029026 13:0.029121 14:0.017751 15:0.017285 16:0.024679 17:0.026689 18:0.020064 19:0.012726 20:0.012642 21:0.022468 22:0.020182 23:0.014667 24:0.010137 25:0.010714 
-1 1:0.45461 2:0.457921 3:0.552433 4:0.550416 5:0.571807 6:0.39118 7:0.51033 8:0.739603 9:0.739436 10:0.744254 11:0.473089 12:0.591231 13:0.746165 14:0.65123 15:0.68926 16:0.690168 17:0.628989 18:0.551676 19:0.500583 20:0.5633 21:0.721785 22:0.625264 23:0.553907 24:0.508347 25:0.579715 
-1 1:0.485361 2:0.477605 3:0.557762 4:0.538014 5:0.566268 6:0.409384 7:0.540157 8:0.735192 9:0.706934 10:0.72631 11:0.471008 12:0.602187 13:0.733953 14:0.623368 15:0.660229 16:0.685672 17:0.628787 18:0.54134 19:0.478658 20:0.528915 21:0.728364 22:0.628748 23:0.543298 24:0.487552 25:0.552193 
-0.3681563893709615 1:0.421987 2:0.459009 3:0.593969 4:0.633698 5:0.666674 6:0.320032 7:0.460357 8:0.712159 9:0.758794 10:0.781439 11:0.375992 12:0.50187 13:0.677537 14:0.62067 15:0.674747 16:0.570133 17:0.535624 18:0.493488 19:0.463512 20:0.535958 21:0.618275 22:0.563591 23:0.524613 24:0.498917 25:0.57686 
