svm_type c_svc
kernel_type linear
nr_class 2
total_sv 8
rho 1.22061
label 1 -1
nr_sv 4 4
SV
0.7351011009352316 1:0.644274 2:0.618823 3:0.58639 4:0.39444 5:0.294053 6:0.411114 7:0.53717 8:0.53382 9:0.348876 10:0.257811 11:0.354608 12:0.443076 13:0.41018 14:0.195592 15:0.15055 16:0.327263 17:0.270926 18:0.161606 19:0.073726 20:0.060361 21:0.302227 22:0.276291 23:0.182522 24:0.086929 25:0.062019 
0.8033363165416755 1:0.688622 2:0.591137 3:0.533072 4:0.335694 5:0.252394 6:0.443162 7:0.459504 8:0.435451 9:0.263137 10:0.20096 11:0.435286 12:0.414643 13:0.362997 14:0.161137 15:0.135797 16:0.453231 17:0.284149 18:0.156875 19:0.065872 20:0.063084 21:0.403549 22:0.280766 23:0.171208 24:0.075368 25:0.060399 
0.2945287196194484 1:0.650411 2:0.605217 3:0.528799 4:0.326278 5:0.243821 6:0.42011 7:0.612517 8:0.623762 9:0.407215 10:0.290228 11:0.354908 12:0.511682 13:0.512279 14:0.255213 15:0.184864 16:0.327523 17:0.318599 18:0.215694 19:0.107411 20:0.080601 21:0.305298 22:0.302955 23:0.205678 24:0.099114 25:0.070062 
1 1:0.635446 2:0.663696 3:0.618398 4:0.40928 5:0.3056 6:0.296127 7:0.482003 8:0.565542 9:0.406134 10:0.276306 11:0.24691 12:0.363869 13:0.399205 14:0.20558 15:0.141354 16:0.219902 17:0.207616 18:0.146813 19:0.071176 20:0.050665 21:0.223805 22:0.246037 23:0.180138 24:0.08844 25:0.058013 
-0.6242774661228777 1:0.091418 2:0.085012 3:0.085423 4:0.073523 5:0.064921 6:0.060943 7:0.084076 8:0.09732 9:0.086603 10:0.073838 11:0.056624 12:0.081771 13:0.093816 14:0.064841 15:0.056943 16:0.063298 17:0.065324 18:0.052649 19:0.037754 20:0.035142 21:0.063921 22:0.062329 23:0.050009 24:0.036148 25:0.033701 
-1 1:0.08742 2:0.07793 3:0.078257 4:0.068396 5:0.060758 6:0.06245 7:0.079902 8:0.085309 9:0.072591 10:0.064952 11:0.05945 12:0.077361 13:0.081414 14:0.053515 15:0.049388 16:0.065555 17:0.059847 18:0.044441 19:0.031447 20:0.030886 21:0.063525 22:0.05672 23:0.043059 24:0.030901 25:0.029779 
-0.9768288957072518 1:0.536103 2:0.60412 3:0.769848 4:0.868658 5:0.880149 6:0.350764 7:0.494429 8:0.727184 9:0.890267 10:0.895624 11:0.399156 12:0.507554 13:0.695359 14:0.65515 15:0.702027 16:0.589503 17:0.536514 18:0.48793 19:0.463524 20:0.531898 21:0.66825 22:0.608509 23:0.560992 24:0.529887 25:0.59342 
-0.2318597752662268 1:0.485361 2:0.461223 3:0.517065 4:0.538014 5:0.566268 6:0.409384 7:0.525279 8:0.650537 9:0.706934 10:0.72631 11:0.471008 12:0.602187 13:0.740389 14:0.63115 15:0.664067 16:0.685672 17:0.628787 18:0.541887 19:0.478658 20:0.528915 21:0.742107 22:0.636082 23:0.543298 24:0.487552 25:0.552193 
